{"inputNodes":20,"hiddenNodes":[10],"outputNodes":2,"activationFunctions":{"hidden_0":{"name":"perceptron"},"output":{"name":"sigmoid"}},"weights":[[[0.059157706508550095,-0.395614691456176,-0.2003830304049914,-0.4226013692768693,0.26281799197740474,0.4080065157824806,0.290949509131055,-0.9743752309441431,0.7520039735664019,-0.1850441588683509,0.291998428705992,-0.5194625997025342,0.7174919277477052,-0.15826879636251512,0.4349825454656542,-0.5894717322561722,0.9279142599843531,0.9138107871317467,1.0665627180085877,-0.39581602093874935],[-0.8333316686637953,0.2720961522595955,-0.4360256197924648,0.41444358221016575,-0.9357357127391581,0.76846280126236,-0.8644818792760895,0.8040521192209917,0.47414526218824893,0.9717139361704166,0.827310719718823,0.48283831057008353,0.022813579228035688,0.9347440696798754,0.8839792075534767,-0.08408201881950106,-0.7915128164344729,-0.25195974241178254,-0.32587573124739855,0.6334392660171644],[0.7403198521603631,-0.9581048473033129,-0.7579272256534271,0.962170810004118,-0.2334440874013879,-0.9789567929431162,-0.13258074255778585,0.10029241570834069,-0.8561144865552827,0.18732334551800367,0.6976619615858839,0.6014045103171197,0.5735878978005524,-0.011121454722190949,-0.47397470391403473,-0.8887742090009585,0.9613992482461287,0.087750075416277,0.19333074292607177,0.5775863774260226],[0.6809772313399369,-0.22919833992743488,0.9197557570631667,-0.4581650782745502,-0.60352779409089,-0.23905443799364523,0.4242331976618674,-0.47497067961493533,0.16988620234682683,-0.9558332383827639,0.494811340512217,0.0708849913213041,-0.22315327342736335,0.26412160294326936,-0.3244102337257377,0.6634295184398273,0.4217615137288977,-0.21986031271574502,0.87913469097386,-0.919995403494839],[-0.45700627637314506,-0.6403922124490968,0.925137905337341,0.7618914189827066,-0.39357033889899373,0.8792458442681319,0.4915959872036626,-0.45380829688648294,-0.7957012940786079,-0.20668668088711328,0.5089322910996685,-0.19717865956248337,-0.6406358386389286,-0.4262540318964767,0.5841008855960026,-0.7131849163950794,-0.8721404092782614,0.09681551955693646,-0.7245076636017541,-0.5501840985905799],[0.6039547653482282,-0.025269381591189966,-0.22459296621201963,0.18840969318512713,-0.5505159470866001,-0.6200998861249984,-0.7620072147159354,-0.16080992879644063,-0.04742311225652207,0.7501015537700959,-0.10073473028735869,0.7242356088673492,-0.8017270589644365,0.5535631764405755,-0.26931983238180957,-0.7608457750135971,-0.023210932890846303,0.1438879393864818,-0.7065245589486402,0.40487265974280806],[0.08928873873036469,-0.33863629764342473,0.8939214177886936,0.26522350983986787,-0.9701930728687804,0.1594727545003396,-0.004013083158143971,0.192235100602272,-0.17261205799516732,0.4510182354424931,0.16493661698655648,0.988162003850455,-0.6166957966612179,0.7119934748005585,0.3244438801978502,0.3637466096951756,-0.8789844434170888,-0.5967801637646852,0.4255324700716634,-0.4145651319825925],[0.5866029779933615,0.5370398212969816,0.12742915740784921,0.9754875750375852,0.7567030311831973,0.13044894865375367,0.4372684430035405,0.1704143718587204,0.06991211737164083,-0.6142251091504316,-0.47226381849230537,0.11963391093685827,0.32379684381420093,-0.2842196247196549,-0.0008553144903618026,-0.981230532917513,0.11356526175164286,0.4270573237577695,-0.0725797957961345,0.7695937479076154],[0.08911825841753052,0.9029816679321696,-0.24143407056073096,0.8756025930788688,-0.9657808510234762,-0.9697444720951425,0.7858698099489749,0.6358728913335758,-0.14279738786030105,0.5858353284434124,-0.1754301052437155,0.6903828337417526,0.7446032600511132,-0.2052961861135243,0.8556111673352378,0.24060632934567217,-0.5703462905138461,-0.9725890944802718,0.7813589386284081,-0.769278815530082],[0.056285864020992005,0.670685001672461,0.5345025147648529,0.1430656881683885,-0.5850441193201927,-0.0689571863270098,0.914928842897043,-0.3131728559422755,0.5712204984447662,0.1595954993749178,-0.7069948977387148,0.10564547442849026,-0.5172117745653466,0.890407623437397,0.802097837090114,-0.725458811532389,-0.5845160627432184,-0.4877211231763545,0.6029948532308884,0.32074621850469454]],[[-0.39610079427832634,0.40005976452882885,-0.6016402724027659,-0.6338482656644171,0.34228961910172995,0.18182470117018168,-0.7586579001999869,-0.7205663524565029,-0.8428420636413159,0.41460240146287086],[0.506036849495803,-0.7584296658183436,0.7973609493404501,0.28214558677084245,0.1427878889527716,0.5814218485888305,-0.6527105678358316,-0.017963264439698534,-0.8481761788197328,-0.62756472199209]]],"biases":[[[-0.90728129446916],[0.5869275126029145],[0.3578270498669922],[0.911025183688202],[-0.13858503934245903],[-0.018743538038905605],[0.9850269454403595],[-0.3813540438445352],[-0.6495739035562322],[0.4628891610336794]],[[0.1307374647723374],[-0.5644041157324207]]]}